3.418000000000000031e-03
0.000000000000000000e+00
2.197000000000000168e-03
1.709000000000000016e-03
2.929999999999999879e-03
4.879999999999999898e-04
7.568000000000000074e-03
0.000000000000000000e+00
0.000000000000000000e+00
0.000000000000000000e+00
0.000000000000000000e+00
0.000000000000000000e+00
0.000000000000000000e+00
0.000000000000000000e+00
0.000000000000000000e+00
1.000000000000000000e+00
3.950000000000000178e-01
8.980000000000000204e-01
-1.340000000000000080e+00
1.000000000000000000e+00
-1.219999999999999973e-01
1.000000000000000000e+00
-7.059999999999999609e-01
1.000000000000000000e+00
-1.026000000000000023e+00
1.000000000000000000e+00
-6.760000000000000453e-01
1.000000000000000000e+00
-6.760000000000000453e-01
9.559999999999999609e-01
-8.169000000000000483e+00
7.960000000000000409e-01
-6.760000000000000453e-01
7.960000000000000409e-01
-6.760000000000000453e-01
7.960000000000000409e-01
-6.760000000000000453e-01
7.960000000000000409e-01
-6.760000000000000453e-01
3.800000000000000044e-01
-6.760000000000000453e-01
-1.150000000000000050e-01
-1.150000000000000050e-01
-1.150000000000000050e-01
-1.150000000000000050e-01
