1.489299999999999999e-02
2.439999999999999949e-04
5.126999999999999613e-03
4.150000000000000043e-03
3.418000000000000031e-03
7.080000000000000356e-03
2.197000000000000168e-03
0.000000000000000000e+00
0.000000000000000000e+00
0.000000000000000000e+00
0.000000000000000000e+00
0.000000000000000000e+00
0.000000000000000000e+00
0.000000000000000000e+00
0.000000000000000000e+00
1.000000000000000000e+00
2.979999999999999871e-01
1.000000000000000000e+00
-6.380000000000000115e-01
1.000000000000000000e+00
-1.360000000000000098e-01
1.000000000000000000e+00
-1.600000000000000033e-01
1.000000000000000000e+00
-1.260000000000000009e-01
1.000000000000000000e+00
-6.380000000000000115e-01
1.000000000000000000e+00
-6.380000000000000115e-01
8.880000000000000115e-01
-8.629999999999999893e-01
8.100000000000000533e-01
-6.380000000000000115e-01
8.100000000000000533e-01
-7.908000000000000362e+00
8.100000000000000533e-01
-6.380000000000000115e-01
7.069999999999999618e-01
-6.380000000000000115e-01
3.170000000000000040e-01
-6.380000000000000115e-01
-1.360000000000000098e-01
-1.360000000000000098e-01
-1.360000000000000098e-01
-1.360000000000000098e-01
