1.221000000000000080e-03
0.000000000000000000e+00
0.000000000000000000e+00
1.464999999999999939e-03
0.000000000000000000e+00
0.000000000000000000e+00
0.000000000000000000e+00
0.000000000000000000e+00
0.000000000000000000e+00
0.000000000000000000e+00
0.000000000000000000e+00
0.000000000000000000e+00
0.000000000000000000e+00
0.000000000000000000e+00
0.000000000000000000e+00
1.000000000000000000e+00
-1.062000000000000055e+00
7.940000000000000391e-01
-2.033999999999999986e+01
7.940000000000000391e-01
-1.044299999999999962e+01
1.000000000000000000e+00
-1.023700000000000010e+01
7.940000000000000391e-01
-1.518599999999999994e+01
7.940000000000000391e-01
-1.559800000000000075e+01
7.940000000000000391e-01
-1.559800000000000075e+01
7.940000000000000391e-01
-1.559800000000000075e+01
-3.638999999999999790e+00
-1.559800000000000075e+01
-3.638999999999999790e+00
-6.446399999999999864e+01
-3.638999999999999790e+00
-1.023700000000000010e+01
-6.628999999999999559e+00
-7.312399999999999523e+01
-6.628999999999999559e+00
-1.817500000000000071e+01
-1.786599999999999966e+01
-1.817500000000000071e+01
-1.817500000000000071e+01
-1.817500000000000071e+01
