7.323999999999999781e-03
2.197000000000000168e-03
3.661999999999999891e-03
1.953000000000000092e-03
3.661999999999999891e-03
3.174000000000000172e-03
5.615000000000000199e-03
9.766000000000000375e-03
0.000000000000000000e+00
0.000000000000000000e+00
0.000000000000000000e+00
0.000000000000000000e+00
0.000000000000000000e+00
0.000000000000000000e+00
0.000000000000000000e+00
1.000000000000000000e+00
5.040000000000000036e-01
1.000000000000000000e+00
-4.800000000000000100e-02
1.000000000000000000e+00
4.299999999999999933e-01
1.000000000000000000e+00
4.670000000000000262e-01
1.000000000000000000e+00
-2.161999999999999922e+00
1.000000000000000000e+00
-2.161999999999999922e+00
1.000000000000000000e+00
-1.316000000000000059e+00
1.000000000000000000e+00
-2.161999999999999922e+00
9.819999999999999840e-01
-2.161999999999999922e+00
9.819999999999999840e-01
-2.161999999999999922e+00
5.769999999999999574e-01
-1.672100000000000009e+01
5.769999999999999574e-01
5.769999999999999574e-01
5.769999999999999574e-01
-1.672100000000000009e+01
5.769999999999999574e-01
-5.989999999999999769e-01
-5.989999999999999769e-01
-5.989999999999999769e-01
