9.770000000000000039e-04
0.000000000000000000e+00
0.000000000000000000e+00
0.000000000000000000e+00
0.000000000000000000e+00
0.000000000000000000e+00
0.000000000000000000e+00
0.000000000000000000e+00
0.000000000000000000e+00
0.000000000000000000e+00
0.000000000000000000e+00
0.000000000000000000e+00
0.000000000000000000e+00
0.000000000000000000e+00
0.000000000000000000e+00
1.000000000000000000e+00
-4.299999999999999656e-02
9.939999999999999947e-01
-2.500000000000000139e-02
9.939999999999999947e-01
4.670000000000000262e-01
9.939999999999999947e-01
6.209999999999999964e-01
9.639999999999999680e-01
-6.590000000000000302e-01
9.589999999999999636e-01
-1.299999999999999940e-02
9.409999999999999476e-01
-3.366000000000000103e+00
9.409999999999999476e-01
-5.400000000000000355e-01
9.409999999999999476e-01
-4.876999999999999780e+00
7.990000000000000435e-01
-5.400000000000000355e-01
7.990000000000000435e-01
-5.400000000000000355e-01
6.620000000000000329e-01
-5.400000000000000355e-01
4.139999999999999791e-01
-5.400000000000000355e-01
-3.099999999999999978e-02
-3.099999999999999978e-02
-3.099999999999999978e-02
-3.099999999999999978e-02
