3.661999999999999891e-03
5.370999999999999906e-03
5.126999999999999613e-03
5.858999999999999625e-03
6.836000000000000063e-03
3.661999999999999891e-03
1.221000000000000080e-03
0.000000000000000000e+00
0.000000000000000000e+00
0.000000000000000000e+00
0.000000000000000000e+00
0.000000000000000000e+00
0.000000000000000000e+00
0.000000000000000000e+00
0.000000000000000000e+00
1.000000000000000000e+00
-5.899999999999999689e-02
1.000000000000000000e+00
2.939999999999999836e-01
1.000000000000000000e+00
2.939999999999999836e-01
1.000000000000000000e+00
-1.759999999999999898e-01
1.000000000000000000e+00
-6.470000000000000195e-01
1.000000000000000000e+00
-1.205899999999999928e+01
1.000000000000000000e+00
-1.205899999999999928e+01
-1.941000000000000059e+00
-1.864699999999999847e+01
-5.235000000000000320e+00
-1.227650000000000006e+02
-5.235000000000000320e+00
-6.059000000000000163e+00
-5.235000000000000320e+00
-1.182399999999999984e+01
-5.235000000000000320e+00
-5.940999999999999837e+00
-5.235000000000000320e+00
-5.235000000000000320e+00
-5.235000000000000320e+00
-5.235000000000000320e+00
-5.235000000000000320e+00
-5.235000000000000320e+00
