5.126999999999999613e-03
9.770000000000000039e-04
0.000000000000000000e+00
0.000000000000000000e+00
0.000000000000000000e+00
0.000000000000000000e+00
0.000000000000000000e+00
0.000000000000000000e+00
0.000000000000000000e+00
0.000000000000000000e+00
0.000000000000000000e+00
0.000000000000000000e+00
0.000000000000000000e+00
0.000000000000000000e+00
0.000000000000000000e+00
1.000000000000000000e+00
-1.296000000000000041e+00
1.000000000000000000e+00
-9.156000000000000583e+00
9.609999999999999654e-01
6.500000000000000222e-01
9.609999999999999654e-01
-7.833000000000000185e+00
9.609999999999999654e-01
-1.129599999999999937e+01
9.609999999999999654e-01
-1.133500000000000085e+01
9.220000000000000417e-01
-1.137400000000000055e+01
9.220000000000000417e-01
-1.514799999999999969e+01
9.220000000000000417e-01
-3.752100000000000080e+01
9.220000000000000417e-01
-1.129599999999999937e+01
-1.957000000000000073e+00
-1.129599999999999937e+01
-3.825000000000000178e+00
-1.129599999999999937e+01
-3.825000000000000178e+00
-1.137400000000000055e+01
-1.129599999999999937e+01
-1.137400000000000055e+01
-1.137400000000000055e+01
-1.137400000000000055e+01
