1.221000000000000080e-03
0.000000000000000000e+00
0.000000000000000000e+00
0.000000000000000000e+00
0.000000000000000000e+00
0.000000000000000000e+00
0.000000000000000000e+00
0.000000000000000000e+00
0.000000000000000000e+00
0.000000000000000000e+00
0.000000000000000000e+00
0.000000000000000000e+00
0.000000000000000000e+00
0.000000000000000000e+00
0.000000000000000000e+00
1.000000000000000000e+00
-1.250000000000000000e-01
9.489999999999999547e-01
-2.818000000000000060e+00
9.749999999999999778e-01
-8.459999999999999742e-01
9.749999999999999778e-01
-4.221000000000000085e+00
9.749999999999999778e-01
-1.010000000000000009e+00
9.749999999999999778e-01
-2.020999999999999908e+00
9.749999999999999778e-01
-2.020999999999999908e+00
9.749999999999999778e-01
-2.020999999999999908e+00
9.749999999999999778e-01
-2.020999999999999908e+00
9.240000000000000435e-01
-2.020999999999999908e+00
6.209999999999999964e-01
-2.020999999999999908e+00
6.209999999999999964e-01
6.209999999999999964e-01
6.209999999999999964e-01
-1.250000000000000000e-01
-1.250000000000000000e-01
-1.380000000000000115e-01
-1.380000000000000115e-01
-1.380000000000000115e-01
