1.416000000000000071e-02
3.344699999999999757e-02
2.807600000000000026e-02
7.397499999999999909e-02
6.958000000000000296e-02
7.348599999999999577e-02
0.000000000000000000e+00
0.000000000000000000e+00
0.000000000000000000e+00
0.000000000000000000e+00
0.000000000000000000e+00
0.000000000000000000e+00
0.000000000000000000e+00
0.000000000000000000e+00
0.000000000000000000e+00
1.000000000000000000e+00
1.000000000000000000e+00
1.000000000000000000e+00
9.080000000000000293e-01
1.000000000000000000e+00
9.439999999999999503e-01
1.000000000000000000e+00
9.080000000000000293e-01
1.000000000000000000e+00
9.439999999999999503e-01
1.000000000000000000e+00
9.240000000000000435e-01
9.949999999999999956e-01
9.240000000000000435e-01
9.949999999999999956e-01
9.240000000000000435e-01
9.949999999999999956e-01
9.689999999999999725e-01
9.849999999999999867e-01
9.240000000000000435e-01
9.849999999999999867e-01
-1.049999999999999961e-01
-9.500000000000000111e-02
-1.670000000000000095e-01
-9.500000000000000111e-02
-9.500000000000000111e-02
-9.500000000000000111e-02
-1.308000000000000052e+00
-1.308000000000000052e+00
-1.308000000000000052e+00
