5.102500000000000091e-02
5.419899999999999718e-02
5.883800000000000141e-02
7.397499999999999909e-02
7.568400000000000127e-02
7.763699999999999768e-02
5.981399999999999911e-02
5.249000000000000193e-02
0.000000000000000000e+00
0.000000000000000000e+00
0.000000000000000000e+00
0.000000000000000000e+00
0.000000000000000000e+00
0.000000000000000000e+00
0.000000000000000000e+00
1.000000000000000000e+00
1.000000000000000000e+00
1.000000000000000000e+00
1.000000000000000000e+00
1.000000000000000000e+00
-3.479999999999999760e-01
1.000000000000000000e+00
-2.359999999999999876e-01
1.000000000000000000e+00
-2.359999999999999876e-01
1.000000000000000000e+00
-3.479999999999999760e-01
1.000000000000000000e+00
7.750000000000000222e-01
1.000000000000000000e+00
-2.359999999999999876e-01
-1.239999999999999991e-01
-2.359999999999999876e-01
-1.239999999999999991e-01
-2.359999999999999876e-01
-1.239999999999999991e-01
-1.239999999999999991e-01
-2.359999999999999876e-01
-2.023600000000000065e+01
-2.359999999999999876e-01
-2.359999999999999876e-01
-2.359999999999999876e-01
-2.359999999999999876e-01
-2.359999999999999876e-01
-2.359999999999999876e-01
