3.735399999999999832e-02
5.444299999999999834e-02
3.369099999999999873e-02
4.101599999999999691e-02
3.857399999999999718e-02
5.053699999999999859e-02
2.954100000000000129e-02
3.808600000000000180e-02
7.885699999999999654e-02
1.042479999999999934e-01
1.262209999999999999e-01
2.446290000000000131e-01
2.880860000000000087e-01
4.931639999999999913e-01
0.000000000000000000e+00
1.000000000000000000e+00
1.000000000000000000e+00
1.000000000000000000e+00
1.000000000000000000e+00
1.000000000000000000e+00
-6.670000000000000373e-01
1.000000000000000000e+00
-2.220000000000000029e-01
1.000000000000000000e+00
-1.110000000000000014e-01
1.000000000000000000e+00
-7.780000000000000249e-01
1.000000000000000000e+00
-1.110000000000000014e-01
1.000000000000000000e+00
-1.221999999999999975e+00
1.000000000000000000e+00
-1.110000000000000014e-01
1.000000000000000000e+00
-2.220000000000000029e-01
1.000000000000000000e+00
-2.220000000000000029e-01
1.000000000000000000e+00
-2.220000000000000029e-01
1.000000000000000000e+00
1.000000000000000000e+00
1.000000000000000000e+00
8.890000000000000124e-01
8.890000000000000124e-01
8.890000000000000124e-01
