7.320000000000000118e-04
1.464999999999999939e-03
4.879999999999999898e-04
4.638999999999999894e-03
3.418000000000000031e-03
4.638999999999999894e-03
2.686000000000000019e-03
4.150000000000000043e-03
0.000000000000000000e+00
0.000000000000000000e+00
0.000000000000000000e+00
0.000000000000000000e+00
0.000000000000000000e+00
0.000000000000000000e+00
0.000000000000000000e+00
1.000000000000000000e+00
3.760000000000000009e-01
1.000000000000000000e+00
1.209999999999999964e-01
1.000000000000000000e+00
-7.149999999999999689e-01
1.000000000000000000e+00
6.149999999999999911e-01
1.000000000000000000e+00
6.260000000000000009e-01
1.000000000000000000e+00
-7.530000000000000027e-01
1.000000000000000000e+00
-7.089999999999999636e-01
1.000000000000000000e+00
-1.338999999999999968e+00
4.189999999999999836e-01
-1.338999999999999968e+00
4.189999999999999836e-01
-1.338999999999999968e+00
4.189999999999999836e-01
-6.979999999999999538e-01
4.189999999999999836e-01
-7.089999999999999636e-01
4.189999999999999836e-01
4.189999999999999836e-01
4.189999999999999836e-01
-1.559999999999999998e-01
-1.559999999999999998e-01
-1.559999999999999998e-01
