4.101599999999999691e-02
4.565400000000000014e-02
4.614300000000000346e-02
7.031199999999999950e-02
6.762700000000000655e-02
7.788100000000000578e-02
1.152340000000000031e-01
1.093750000000000000e-01
1.115720000000000045e-01
1.555179999999999896e-01
1.870120000000000116e-01
0.000000000000000000e+00
0.000000000000000000e+00
0.000000000000000000e+00
0.000000000000000000e+00
1.000000000000000000e+00
2.000000000000000042e-02
1.000000000000000000e+00
3.459999999999999742e-01
1.000000000000000000e+00
6.730000000000000426e-01
1.000000000000000000e+00
-7.650000000000000133e-01
1.000000000000000000e+00
-1.759999999999999898e-01
1.000000000000000000e+00
1.000000000000000000e+00
1.000000000000000000e+00
-1.288000000000000034e+00
1.000000000000000000e+00
6.730000000000000426e-01
1.000000000000000000e+00
6.730000000000000426e-01
1.000000000000000000e+00
-4.599999999999999922e-02
1.000000000000000000e+00
1.000000000000000000e+00
-1.110000000000000014e-01
-1.069899999999999984e+01
-1.110000000000000014e-01
-1.110000000000000014e-01
-1.110000000000000014e-01
-8.299999999999999600e-01
-1.110000000000000014e-01
-1.110000000000000014e-01
