4.150000000000000043e-03
7.080000000000000356e-03
5.126999999999999613e-03
7.323999999999999781e-03
1.220700000000000084e-02
1.220700000000000084e-02
1.171900000000000025e-02
1.025399999999999923e-02
3.149400000000000116e-02
3.930700000000000166e-02
4.907199999999999757e-02
9.863299999999999845e-02
0.000000000000000000e+00
0.000000000000000000e+00
0.000000000000000000e+00
1.000000000000000000e+00
-6.209999999999999964e-01
1.000000000000000000e+00
-5.929999999999999716e-01
1.000000000000000000e+00
-1.739999999999999991e+00
1.000000000000000000e+00
7.269999999999999796e-01
1.000000000000000000e+00
7.990000000000000435e-01
1.000000000000000000e+00
6.840000000000000524e-01
1.000000000000000000e+00
1.000000000000000000e+00
1.000000000000000000e+00
7.990000000000000435e-01
1.000000000000000000e+00
-4.490000000000000102e-01
1.000000000000000000e+00
-4.060000000000000275e-01
1.000000000000000000e+00
-4.490000000000000102e-01
1.000000000000000000e+00
-4.490000000000000102e-01
-4.060000000000000275e-01
-4.349999999999999978e-01
-4.060000000000000275e-01
-4.060000000000000275e-01
-4.060000000000000275e-01
-4.060000000000000275e-01
