7.080000000000000356e-03
7.568000000000000074e-03
7.323999999999999781e-03
5.615000000000000199e-03
7.320000000000000118e-04
0.000000000000000000e+00
0.000000000000000000e+00
0.000000000000000000e+00
0.000000000000000000e+00
0.000000000000000000e+00
0.000000000000000000e+00
0.000000000000000000e+00
0.000000000000000000e+00
0.000000000000000000e+00
0.000000000000000000e+00
1.000000000000000000e+00
-3.729999999999999982e-01
1.000000000000000000e+00
5.420000000000000373e-01
1.000000000000000000e+00
1.000000000000000000e+00
1.000000000000000000e+00
-4.079999999999999738e-01
1.000000000000000000e+00
-6.076999999999999957e+00
8.589999999999999858e-01
-6.076999999999999957e+00
-9.719999999999999751e-01
-6.041999999999999815e+00
-9.719999999999999751e-01
-6.076999999999999957e+00
-9.719999999999999751e-01
-6.076999999999999957e+00
-2.415000000000000036e+00
-7.415000000000000036e+00
-3.858999999999999986e+00
-4.423000000000000043e+00
-3.858999999999999986e+00
-6.041999999999999815e+00
-3.858999999999999986e+00
-3.894000000000000128e+00
-3.858999999999999986e+00
-3.858999999999999986e+00
-3.858999999999999986e+00
-3.858999999999999986e+00
