6.836000000000000063e-03
8.788999999999999937e-03
1.709000000000000102e-02
1.513699999999999941e-02
1.611299999999999885e-02
1.953099999999999975e-02
0.000000000000000000e+00
0.000000000000000000e+00
0.000000000000000000e+00
0.000000000000000000e+00
0.000000000000000000e+00
0.000000000000000000e+00
0.000000000000000000e+00
0.000000000000000000e+00
0.000000000000000000e+00
1.000000000000000000e+00
-2.089999999999999913e-01
1.000000000000000000e+00
-2.089999999999999913e-01
1.000000000000000000e+00
1.000000000000000000e+00
1.000000000000000000e+00
7.800000000000000266e-01
1.000000000000000000e+00
1.209999999999999964e-01
1.000000000000000000e+00
3.410000000000000253e-01
7.800000000000000266e-01
-4.495000000000000107e+00
7.800000000000000266e-01
-1.976899999999999835e+01
-4.275000000000000355e+00
-5.592999999999999972e+00
-4.275000000000000355e+00
-4.495000000000000107e+00
-4.275000000000000355e+00
-4.275000000000000355e+00
-4.275000000000000355e+00
-4.275000000000000355e+00
-4.275000000000000355e+00
-4.384999999999999787e+00
-4.275000000000000355e+00
-4.275000000000000355e+00
-4.275000000000000355e+00
-4.275000000000000355e+00
