1.757799999999999987e-02
2.270499999999999949e-02
2.709999999999999909e-02
3.173800000000000232e-02
2.539100000000000038e-02
2.368200000000000166e-02
1.831100000000000089e-02
9.770000000000000039e-04
0.000000000000000000e+00
0.000000000000000000e+00
0.000000000000000000e+00
0.000000000000000000e+00
0.000000000000000000e+00
0.000000000000000000e+00
0.000000000000000000e+00
1.000000000000000000e+00
5.629999999999999449e-01
1.000000000000000000e+00
1.000000000000000000e+00
1.000000000000000000e+00
6.720000000000000417e-01
1.000000000000000000e+00
4.540000000000000147e-01
1.000000000000000000e+00
3.990000000000000213e-01
1.000000000000000000e+00
6.169999999999999929e-01
1.000000000000000000e+00
6.720000000000000417e-01
1.000000000000000000e+00
-5.557000000000000384e+00
-2.387999999999999901e+00
-5.174999999999999822e+00
-2.387999999999999901e+00
-1.096700000000000053e+01
-5.065999999999999837e+00
-5.120000000000000107e+00
-5.065999999999999837e+00
-5.065999999999999837e+00
-5.065999999999999837e+00
-5.065999999999999837e+00
-5.065999999999999837e+00
-5.120000000000000107e+00
-5.120000000000000107e+00
-5.120000000000000107e+00
