5.126999999999999613e-03
4.883000000000000188e-03
5.370999999999999906e-03
0.000000000000000000e+00
0.000000000000000000e+00
0.000000000000000000e+00
0.000000000000000000e+00
0.000000000000000000e+00
0.000000000000000000e+00
0.000000000000000000e+00
0.000000000000000000e+00
0.000000000000000000e+00
0.000000000000000000e+00
0.000000000000000000e+00
0.000000000000000000e+00
1.000000000000000000e+00
-5.666999999999999815e+00
1.000000000000000000e+00
2.929999999999999827e-01
1.000000000000000000e+00
-9.555999999999999162e+00
9.489999999999999547e-01
-9.536400000000000432e+01
-2.119999999999999940e-01
-2.546499999999999986e+01
9.489999999999999547e-01
-3.342999999999999972e+00
9.489999999999999547e-01
-3.342999999999999972e+00
9.489999999999999547e-01
-7.131000000000000227e+00
9.489999999999999547e-01
-1.536400000000000077e+01
9.489999999999999547e-01
-5.464999999999999858e+00
9.489999999999999547e-01
-5.464999999999999858e+00
5.450000000000000400e-01
-5.464999999999999858e+00
4.440000000000000058e-01
-5.464999999999999858e+00
-1.778000000000000025e+00
-5.464999999999999858e+00
-5.464999999999999858e+00
-5.464999999999999858e+00
