7.320000000000000118e-04
0.000000000000000000e+00
9.770000000000000039e-04
0.000000000000000000e+00
0.000000000000000000e+00
0.000000000000000000e+00
0.000000000000000000e+00
0.000000000000000000e+00
0.000000000000000000e+00
0.000000000000000000e+00
0.000000000000000000e+00
0.000000000000000000e+00
0.000000000000000000e+00
0.000000000000000000e+00
0.000000000000000000e+00
1.000000000000000000e+00
-4.369999999999999996e-01
9.789999999999999813e-01
-4.030000000000000249e-01
1.000000000000000000e+00
-4.169999999999999818e-01
9.859999999999999876e-01
4.500000000000000111e-01
9.519999999999999574e-01
-3.960000000000000187e-01
9.170000000000000373e-01
-2.899999999999999911e+00
8.970000000000000195e-01
-5.060000000000000053e-01
8.970000000000000195e-01
-5.060000000000000053e-01
8.559999999999999831e-01
-4.597999999999999865e+00
8.489999999999999769e-01
-5.060000000000000053e-01
8.489999999999999769e-01
8.489999999999999769e-01
8.489999999999999769e-01
-7.783000000000000362e+00
8.489999999999999769e-01
-7.783000000000000362e+00
7.730000000000000204e-01
7.249999999999999778e-01
7.249999999999999778e-01
7.249999999999999778e-01
