2.319299999999999834e-02
2.783199999999999910e-02
4.101599999999999691e-02
4.247999999999999693e-02
4.663099999999999884e-02
6.372099999999999986e-02
3.320300000000000334e-02
2.686000000000000019e-03
0.000000000000000000e+00
0.000000000000000000e+00
0.000000000000000000e+00
0.000000000000000000e+00
0.000000000000000000e+00
0.000000000000000000e+00
0.000000000000000000e+00
1.000000000000000000e+00
2.810000000000000275e-01
1.000000000000000000e+00
9.280000000000000471e-01
1.000000000000000000e+00
5.679999999999999494e-01
1.000000000000000000e+00
8.559999999999999831e-01
1.000000000000000000e+00
9.280000000000000471e-01
1.000000000000000000e+00
5.679999999999999494e-01
1.000000000000000000e+00
-4.107999999999999652e+00
1.000000000000000000e+00
-1.029499999999999993e+01
-3.748000000000000220e+00
-1.691400000000000148e+01
-3.963999999999999968e+00
-1.691400000000000148e+01
-1.417999999999999972e+01
-1.705799999999999983e+01
-1.691400000000000148e+01
-1.691400000000000148e+01
-1.691400000000000148e+01
-1.691400000000000148e+01
-1.691400000000000148e+01
-1.691400000000000148e+01
-1.691400000000000148e+01
-1.691400000000000148e+01
