2.636700000000000155e-02
4.077100000000000168e-02
3.881799999999999834e-02
4.345700000000000257e-02
2.514600000000000168e-02
1.464799999999999956e-02
1.440400000000000014e-02
0.000000000000000000e+00
0.000000000000000000e+00
0.000000000000000000e+00
0.000000000000000000e+00
0.000000000000000000e+00
0.000000000000000000e+00
0.000000000000000000e+00
0.000000000000000000e+00
1.000000000000000000e+00
8.379999999999999671e-01
1.000000000000000000e+00
1.000000000000000000e+00
1.000000000000000000e+00
1.000000000000000000e+00
1.000000000000000000e+00
9.389999999999999458e-01
1.000000000000000000e+00
9.899999999999999911e-01
1.000000000000000000e+00
-5.600000000000000533e-01
1.000000000000000000e+00
2.099999999999999922e-01
9.899999999999999911e-01
-5.400000000000000355e-01
2.099999999999999922e-01
-1.989000000000000101e+00
-5.200000000000000178e-01
-5.300000000000000266e-01
-5.200000000000000178e-01
-5.300000000000000266e-01
-5.200000000000000178e-01
-5.400000000000000355e-01
-5.300000000000000266e-01
-5.400000000000000355e-01
-5.300000000000000266e-01
-5.300000000000000266e-01
-5.300000000000000266e-01
-5.300000000000000266e-01
