6.348000000000000344e-03
4.879999999999999898e-04
2.197000000000000168e-03
1.464999999999999939e-03
1.709000000000000016e-03
2.441000000000000027e-03
4.638999999999999894e-03
0.000000000000000000e+00
0.000000000000000000e+00
0.000000000000000000e+00
0.000000000000000000e+00
0.000000000000000000e+00
0.000000000000000000e+00
0.000000000000000000e+00
0.000000000000000000e+00
1.000000000000000000e+00
-6.456000000000000405e+00
1.000000000000000000e+00
-2.314199999999999946e+01
1.000000000000000000e+00
-6.751000000000000334e+00
1.000000000000000000e+00
-1.130799999999999983e+01
1.000000000000000000e+00
-1.740200000000000102e+01
1.000000000000000000e+00
-1.521299999999999919e+01
1.000000000000000000e+00
-1.213599999999999923e+01
4.079999999999999738e-01
-3.042000000000000171e+01
4.079999999999999738e-01
-1.657400000000000162e+01
4.079999999999999738e-01
-1.065700000000000003e+01
-5.391000000000000014e+00
-1.657400000000000162e+01
-5.391000000000000014e+00
-1.657400000000000162e+01
-5.685999999999999943e+00
-5.685999999999999943e+00
-5.685999999999999943e+00
-1.065700000000000003e+01
-5.685999999999999943e+00
-5.685999999999999943e+00
