4.638999999999999894e-03
8.056999999999999926e-03
1.123000000000000040e-02
2.686000000000000019e-03
0.000000000000000000e+00
0.000000000000000000e+00
0.000000000000000000e+00
0.000000000000000000e+00
0.000000000000000000e+00
0.000000000000000000e+00
0.000000000000000000e+00
0.000000000000000000e+00
0.000000000000000000e+00
0.000000000000000000e+00
0.000000000000000000e+00
1.000000000000000000e+00
8.369999999999999662e-01
1.000000000000000000e+00
1.000000000000000000e+00
1.000000000000000000e+00
1.000000000000000000e+00
1.000000000000000000e+00
3.089999999999999969e-01
8.780000000000000027e-01
-8.289999999999999591e-01
8.780000000000000027e-01
-8.289999999999999591e-01
5.929999999999999716e-01
-8.289999999999999591e-01
5.929999999999999716e-01
-8.900000000000000133e-01
-9.800000000000000377e-02
-1.990000000000000102e-01
-9.800000000000000377e-02
-1.990000000000000102e-01
-9.800000000000000377e-02
-8.289999999999999591e-01
-9.800000000000000377e-02
-8.289999999999999591e-01
-9.800000000000000377e-02
-1.179999999999999938e-01
-9.800000000000000377e-02
-1.179999999999999938e-01
-1.179999999999999938e-01
-1.179999999999999938e-01
