1.049800000000000039e-02
0.000000000000000000e+00
0.000000000000000000e+00
0.000000000000000000e+00
0.000000000000000000e+00
0.000000000000000000e+00
0.000000000000000000e+00
0.000000000000000000e+00
0.000000000000000000e+00
0.000000000000000000e+00
0.000000000000000000e+00
0.000000000000000000e+00
0.000000000000000000e+00
0.000000000000000000e+00
0.000000000000000000e+00
1.000000000000000000e+00
9.809999999999999831e-01
9.010000000000000231e-01
7.770000000000000240e-01
9.010000000000000231e-01
7.770000000000000240e-01
9.010000000000000231e-01
9.010000000000000231e-01
9.010000000000000231e-01
7.279999999999999805e-01
9.010000000000000231e-01
7.209999999999999742e-01
8.509999999999999787e-01
8.449999999999999734e-01
8.509999999999999787e-01
7.339999999999999858e-01
8.509999999999999787e-01
7.279999999999999805e-01
8.509999999999999787e-01
-6.099999999999999867e-01
8.509999999999999787e-01
-6.099999999999999867e-01
-5.420000000000000373e-01
-6.590000000000000302e-01
-6.590000000000000302e-01
-6.590000000000000302e-01
-6.590000000000000302e-01
-2.337000000000000188e+00
-2.337000000000000188e+00
-2.337000000000000188e+00
