4.638999999999999894e-03
5.126999999999999613e-03
3.906000000000000184e-03
3.174000000000000172e-03
5.126999999999999613e-03
0.000000000000000000e+00
0.000000000000000000e+00
0.000000000000000000e+00
0.000000000000000000e+00
0.000000000000000000e+00
0.000000000000000000e+00
0.000000000000000000e+00
0.000000000000000000e+00
0.000000000000000000e+00
0.000000000000000000e+00
1.000000000000000000e+00
-1.302999999999999936e+01
1.000000000000000000e+00
-1.090000000000000080e+00
1.000000000000000000e+00
8.509999999999999787e-01
1.000000000000000000e+00
-2.526899999999999835e+01
1.000000000000000000e+00
-2.571600000000000108e+01
8.509999999999999787e-01
-5.676100000000000279e+01
4.030000000000000249e-01
-5.676100000000000279e+01
1.039999999999999952e-01
-5.616400000000000148e+01
1.039999999999999952e-01
-5.616400000000000148e+01
-1.090000000000000080e+00
-5.616400000000000148e+01
-1.377599999999999980e+01
-5.616400000000000148e+01
-2.601500000000000057e+01
-5.616400000000000148e+01
-3.974600000000000222e+01
-4.034300000000000352e+01
-3.974600000000000222e+01
-4.034300000000000352e+01
-4.034300000000000352e+01
-4.034300000000000352e+01
