4.760699999999999654e-02
5.859400000000000025e-02
4.980500000000000205e-02
0.000000000000000000e+00
0.000000000000000000e+00
0.000000000000000000e+00
0.000000000000000000e+00
0.000000000000000000e+00
0.000000000000000000e+00
0.000000000000000000e+00
0.000000000000000000e+00
0.000000000000000000e+00
0.000000000000000000e+00
0.000000000000000000e+00
0.000000000000000000e+00
1.000000000000000000e+00
9.379999999999999449e-01
1.000000000000000000e+00
1.000000000000000000e+00
1.000000000000000000e+00
9.539999999999999591e-01
9.849999999999999867e-01
9.539999999999999591e-01
9.849999999999999867e-01
9.689999999999999725e-01
9.849999999999999867e-01
9.070000000000000284e-01
9.539999999999999591e-01
9.539999999999999591e-01
9.539999999999999591e-01
-9.170000000000000373e-01
-8.549999999999999822e-01
-8.549999999999999822e-01
-8.549999999999999822e-01
-8.549999999999999822e-01
-8.549999999999999822e-01
-8.549999999999999822e-01
-8.549999999999999822e-01
-8.699999999999999956e-01
-8.549999999999999822e-01
-8.699999999999999956e-01
-8.549999999999999822e-01
-8.699999999999999956e-01
-8.699999999999999956e-01
-8.699999999999999956e-01
