1.196299999999999968e-02
2.978499999999999898e-02
3.051799999999999999e-02
3.149400000000000116e-02
3.442400000000000321e-02
3.710900000000000309e-02
0.000000000000000000e+00
0.000000000000000000e+00
0.000000000000000000e+00
0.000000000000000000e+00
0.000000000000000000e+00
0.000000000000000000e+00
0.000000000000000000e+00
0.000000000000000000e+00
0.000000000000000000e+00
1.000000000000000000e+00
9.320000000000000506e-01
1.000000000000000000e+00
9.609999999999999654e-01
1.000000000000000000e+00
1.000000000000000000e+00
1.000000000000000000e+00
9.659999999999999698e-01
1.000000000000000000e+00
9.949999999999999956e-01
1.000000000000000000e+00
9.659999999999999698e-01
9.809999999999999831e-01
9.809999999999999831e-01
9.809999999999999831e-01
9.709999999999999742e-01
9.809999999999999831e-01
9.659999999999999698e-01
9.809999999999999831e-01
9.809999999999999831e-01
9.809999999999999831e-01
-7.009999999999999565e-01
-6.420000000000000151e-01
-6.620000000000000329e-01
-6.620000000000000329e-01
-6.620000000000000329e-01
-6.620000000000000329e-01
-6.620000000000000329e-01
-6.620000000000000329e-01
-6.620000000000000329e-01
