4.321300000000000141e-02
5.493200000000000166e-02
5.883800000000000141e-02
6.787100000000000077e-02
7.470699999999999563e-02
7.788100000000000578e-02
0.000000000000000000e+00
0.000000000000000000e+00
0.000000000000000000e+00
0.000000000000000000e+00
0.000000000000000000e+00
0.000000000000000000e+00
0.000000000000000000e+00
0.000000000000000000e+00
0.000000000000000000e+00
1.000000000000000000e+00
-2.299999999999999961e-02
1.000000000000000000e+00
-2.299999999999999961e-02
1.000000000000000000e+00
6.590000000000000302e-01
1.000000000000000000e+00
8.860000000000000098e-01
1.000000000000000000e+00
7.730000000000000204e-01
1.000000000000000000e+00
6.590000000000000302e-01
-1.955000000000000071e+00
-2.294999999999999929e+00
-1.955000000000000071e+00
-1.955000000000000071e+00
-1.955000000000000071e+00
-2.523000000000000131e+00
-1.955000000000000071e+00
-2.218199999999999861e+01
-1.955000000000000071e+00
-2.068000000000000060e+00
-1.955000000000000071e+00
-2.068000000000000060e+00
-2.068000000000000060e+00
-2.068000000000000060e+00
-2.068000000000000060e+00
-2.068000000000000060e+00
-2.068000000000000060e+00
-2.068000000000000060e+00
