1.709000000000000016e-03
2.929999999999999879e-03
1.221000000000000080e-03
2.439999999999999949e-04
0.000000000000000000e+00
0.000000000000000000e+00
0.000000000000000000e+00
0.000000000000000000e+00
0.000000000000000000e+00
0.000000000000000000e+00
0.000000000000000000e+00
0.000000000000000000e+00
0.000000000000000000e+00
0.000000000000000000e+00
0.000000000000000000e+00
1.000000000000000000e+00
1.000000000000000021e-03
1.000000000000000000e+00
-4.709999999999999742e-01
1.000000000000000000e+00
7.399999999999999911e-01
1.000000000000000000e+00
4.179999999999999827e-01
9.919999999999999929e-01
-4.709999999999999742e-01
9.839999999999999858e-01
-7.000000000000000146e-03
9.839999999999999858e-01
-4.709999999999999742e-01
9.529999999999999583e-01
-4.121999999999999886e+00
9.529999999999999583e-01
-4.709999999999999742e-01
9.529999999999999583e-01
-4.709999999999999742e-01
8.900000000000000133e-01
-4.709999999999999742e-01
7.089999999999999636e-01
7.089999999999999636e-01
7.089999999999999636e-01
7.089999999999999636e-01
7.089999999999999636e-01
-3.899999999999999994e-02
-3.899999999999999994e-02
-3.899999999999999994e-02
