1.220700000000000084e-02
0.000000000000000000e+00
0.000000000000000000e+00
0.000000000000000000e+00
0.000000000000000000e+00
0.000000000000000000e+00
0.000000000000000000e+00
0.000000000000000000e+00
0.000000000000000000e+00
0.000000000000000000e+00
0.000000000000000000e+00
0.000000000000000000e+00
0.000000000000000000e+00
0.000000000000000000e+00
0.000000000000000000e+00
1.000000000000000000e+00
6.570000000000000284e-01
6.570000000000000284e-01
-7.650000000000000133e-01
6.570000000000000284e-01
-4.709999999999999742e-01
6.079999999999999849e-01
-5.200000000000000178e-01
6.079999999999999849e-01
-6.179999999999999938e-01
6.079999999999999849e-01
-5.200000000000000178e-01
6.079999999999999849e-01
-5.200000000000000178e-01
6.079999999999999849e-01
-5.200000000000000178e-01
6.079999999999999849e-01
-6.179999999999999938e-01
-5.200000000000000178e-01
-5.200000000000000178e-01
-5.200000000000000178e-01
-6.670000000000000373e-01
-5.200000000000000178e-01
-5.200000000000000178e-01
-5.200000000000000178e-01
-5.200000000000000178e-01
-5.200000000000000178e-01
-5.200000000000000178e-01
-5.200000000000000178e-01
-5.200000000000000178e-01
