1.123000000000000040e-02
9.520999999999999949e-03
1.709000000000000102e-02
2.343800000000000050e-02
1.123000000000000040e-02
3.661999999999999891e-03
9.766000000000000375e-03
1.953000000000000092e-03
0.000000000000000000e+00
0.000000000000000000e+00
0.000000000000000000e+00
0.000000000000000000e+00
0.000000000000000000e+00
0.000000000000000000e+00
0.000000000000000000e+00
1.000000000000000000e+00
8.080000000000000515e-01
1.000000000000000000e+00
8.080000000000000515e-01
1.000000000000000000e+00
9.859999999999999876e-01
1.000000000000000000e+00
7.670000000000000151e-01
1.000000000000000000e+00
2.469999999999999973e-01
1.000000000000000000e+00
-9.729999999999999760e-01
1.000000000000000000e+00
3.970000000000000195e-01
1.000000000000000000e+00
-9.729999999999999760e-01
6.580000000000000293e-01
1.509999999999999953e-01
6.580000000000000293e-01
-2.330000000000000127e-01
6.580000000000000293e-01
-2.879999999999999782e-01
-1.509999999999999953e-01
-1.640000000000000069e-01
-1.509999999999999953e-01
-2.190000000000000002e-01
-1.640000000000000069e-01
-1.640000000000000069e-01
-1.640000000000000069e-01
-1.640000000000000069e-01
