1.953000000000000092e-03
1.953000000000000092e-03
4.150000000000000043e-03
4.638999999999999894e-03
1.464999999999999939e-03
1.953000000000000092e-03
4.150000000000000043e-03
0.000000000000000000e+00
0.000000000000000000e+00
0.000000000000000000e+00
0.000000000000000000e+00
0.000000000000000000e+00
0.000000000000000000e+00
0.000000000000000000e+00
0.000000000000000000e+00
1.000000000000000000e+00
-3.599999999999999867e-01
1.000000000000000000e+00
7.600000000000000089e-01
1.000000000000000000e+00
-5.719999999999999751e+00
1.000000000000000000e+00
-1.259999999999999964e+01
1.000000000000000000e+00
-2.076000000000000156e+01
1.000000000000000000e+00
-2.892000000000000171e+01
1.000000000000000000e+00
-2.076000000000000156e+01
8.399999999999999689e-01
-2.092000000000000171e+01
8.399999999999999689e-01
-2.076000000000000156e+01
1.199999999999999956e-01
-2.076000000000000156e+01
-5.879999999999999893e+00
-2.076000000000000156e+01
-1.227999999999999936e+01
-2.060000000000000142e+01
-2.060000000000000142e+01
-2.060000000000000142e+01
-2.060000000000000142e+01
-2.060000000000000142e+01
-2.060000000000000142e+01
-2.060000000000000142e+01
