1.709000000000000016e-03
0.000000000000000000e+00
0.000000000000000000e+00
0.000000000000000000e+00
0.000000000000000000e+00
0.000000000000000000e+00
0.000000000000000000e+00
0.000000000000000000e+00
0.000000000000000000e+00
0.000000000000000000e+00
0.000000000000000000e+00
0.000000000000000000e+00
0.000000000000000000e+00
0.000000000000000000e+00
0.000000000000000000e+00
1.000000000000000000e+00
5.000000000000000278e-02
9.709999999999999742e-01
6.979999999999999538e-01
8.850000000000000089e-01
8.559999999999999831e-01
8.850000000000000089e-01
5.000000000000000278e-02
8.850000000000000089e-01
-2.884999999999999787e+00
8.850000000000000089e-01
-1.905999999999999917e+00
8.850000000000000089e-01
-1.905999999999999917e+00
8.850000000000000089e-01
-4.567999999999999616e+00
8.850000000000000089e-01
-1.143999999999999906e+00
8.850000000000000089e-01
-1.935000000000000053e+00
8.709999999999999964e-01
-1.079999999999999988e-01
8.709999999999999964e-01
-1.079999999999999988e-01
-1.079999999999999988e-01
-1.079999999999999988e-01
-1.079999999999999988e-01
-1.509999999999999953e-01
-1.509999999999999953e-01
-1.509999999999999953e-01
