7.320000000000000118e-04
0.000000000000000000e+00
0.000000000000000000e+00
0.000000000000000000e+00
0.000000000000000000e+00
0.000000000000000000e+00
0.000000000000000000e+00
0.000000000000000000e+00
0.000000000000000000e+00
0.000000000000000000e+00
0.000000000000000000e+00
0.000000000000000000e+00
0.000000000000000000e+00
0.000000000000000000e+00
0.000000000000000000e+00
1.000000000000000000e+00
-4.849999999999999867e-01
8.020000000000000462e-01
3.069999999999999951e-01
8.020000000000000462e-01
-4.445999999999999730e+00
8.020000000000000462e-01
6.039999999999999813e-01
7.029999999999999583e-01
-3.860000000000000098e-01
7.029999999999999583e-01
-9.891000000000000014e+00
7.029999999999999583e-01
-1.731700000000000017e+01
7.029999999999999583e-01
-2.454500000000000171e+01
7.029999999999999583e-01
-1.078200000000000003e+01
7.029999999999999583e-01
-1.058399999999999963e+01
7.029999999999999583e-01
7.029999999999999583e-01
7.029999999999999583e-01
-5.336999999999999744e+00
5.050000000000000044e-01
-5.336999999999999744e+00
-5.336999999999999744e+00
-5.336999999999999744e+00
-5.336999999999999744e+00
-5.336999999999999744e+00
