2.929999999999999879e-03
4.883000000000000188e-03
3.906000000000000184e-03
5.370999999999999906e-03
0.000000000000000000e+00
0.000000000000000000e+00
0.000000000000000000e+00
0.000000000000000000e+00
0.000000000000000000e+00
0.000000000000000000e+00
0.000000000000000000e+00
0.000000000000000000e+00
0.000000000000000000e+00
0.000000000000000000e+00
0.000000000000000000e+00
1.000000000000000000e+00
1.000000000000000021e-02
1.000000000000000000e+00
-7.317000000000000171e+00
1.000000000000000000e+00
-8.899999999999999578e-02
1.000000000000000000e+00
-1.385100000000000087e+01
9.010000000000000231e-01
-2.869999999999999774e-01
9.010000000000000231e-01
-7.812000000000000277e+00
9.010000000000000231e-01
-7.820000000000000284e-01
9.010000000000000231e-01
-7.217999999999999972e+00
9.010000000000000231e-01
-1.632700000000000173e+01
9.010000000000000231e-01
-1.632700000000000173e+01
9.010000000000000231e-01
-1.840599999999999881e+01
9.010000000000000231e-01
-7.217999999999999972e+00
9.010000000000000231e-01
-1.078999999999999959e+00
9.010000000000000231e-01
9.010000000000000231e-01
9.010000000000000231e-01
9.010000000000000231e-01
