4.638999999999999894e-03
4.150000000000000043e-03
1.221000000000000080e-03
1.464999999999999939e-03
2.929999999999999879e-03
4.883000000000000188e-03
8.056999999999999926e-03
4.638999999999999894e-03
9.520999999999999949e-03
2.439999999999999949e-04
2.197000000000000168e-03
1.000999999999999980e-02
0.000000000000000000e+00
0.000000000000000000e+00
0.000000000000000000e+00
1.000000000000000000e+00
1.710000000000000131e-01
1.000000000000000000e+00
9.370000000000000551e-01
1.000000000000000000e+00
8.699999999999999400e-02
1.000000000000000000e+00
8.850000000000000089e-01
1.000000000000000000e+00
8.850000000000000089e-01
1.000000000000000000e+00
-2.923999999999999932e+00
1.000000000000000000e+00
-2.914000000000000146e+00
1.000000000000000000e+00
-2.923999999999999932e+00
1.000000000000000000e+00
-2.923999999999999932e+00
1.000000000000000000e+00
-1.104599999999999937e+01
1.000000000000000000e+00
-1.104599999999999937e+01
1.000000000000000000e+00
-9.939999999999999947e-01
1.710000000000000131e-01
-9.939999999999999947e-01
-9.939999999999999947e-01
-9.939999999999999947e-01
-9.939999999999999947e-01
-9.939999999999999947e-01
