7.320000000000000118e-04
0.000000000000000000e+00
0.000000000000000000e+00
0.000000000000000000e+00
0.000000000000000000e+00
0.000000000000000000e+00
0.000000000000000000e+00
0.000000000000000000e+00
0.000000000000000000e+00
0.000000000000000000e+00
0.000000000000000000e+00
0.000000000000000000e+00
0.000000000000000000e+00
0.000000000000000000e+00
0.000000000000000000e+00
1.000000000000000000e+00
3.130000000000000004e-01
9.689999999999999725e-01
-6.949999999999999512e-01
9.949999999999999956e-01
-1.390000000000000124e-01
9.949999999999999956e-01
-1.330000000000000071e-01
9.949999999999999956e-01
-6.949999999999999512e-01
9.949999999999999956e-01
-6.949999999999999512e-01
9.949999999999999956e-01
9.320000000000000506e-01
9.949999999999999956e-01
-1.539999999999999980e-01
9.689999999999999725e-01
-1.539999999999999980e-01
9.320000000000000506e-01
-1.910000000000000031e-01
9.320000000000000506e-01
-8.385999999999999233e+00
9.270000000000000462e-01
2.500000000000000000e-01
6.640000000000000346e-01
2.500000000000000000e-01
2.500000000000000000e-01
2.500000000000000000e-01
2.500000000000000000e-01
2.500000000000000000e-01
