5.615000000000000199e-03
1.000999999999999980e-02
1.196299999999999968e-02
1.098599999999999924e-02
1.221000000000000080e-03
0.000000000000000000e+00
0.000000000000000000e+00
0.000000000000000000e+00
0.000000000000000000e+00
0.000000000000000000e+00
0.000000000000000000e+00
0.000000000000000000e+00
0.000000000000000000e+00
0.000000000000000000e+00
0.000000000000000000e+00
1.000000000000000000e+00
7.860000000000000320e-01
1.000000000000000000e+00
8.619999999999999885e-01
1.000000000000000000e+00
1.000000000000000000e+00
1.000000000000000000e+00
9.849999999999999867e-01
1.000000000000000000e+00
-1.217000000000000082e+00
9.689999999999999725e-01
-1.217000000000000082e+00
9.689999999999999725e-01
6.179999999999999938e-01
9.689999999999999725e-01
-3.150000000000000022e-01
9.689999999999999725e-01
-1.308999999999999941e+00
9.689999999999999725e-01
-2.839999999999999747e-01
9.689999999999999725e-01
-2.999999999999999889e-01
-2.839999999999999747e-01
-3.150000000000000022e-01
-2.839999999999999747e-01
-2.839999999999999747e-01
-2.839999999999999747e-01
-2.839999999999999747e-01
-2.839999999999999747e-01
-2.839999999999999747e-01
