2.441000000000000027e-03
2.439999999999999949e-04
4.879999999999999898e-04
1.953000000000000092e-03
9.770000000000000039e-04
4.883000000000000188e-03
0.000000000000000000e+00
2.319299999999999834e-02
3.247099999999999986e-02
4.736300000000000232e-02
2.539100000000000038e-02
0.000000000000000000e+00
0.000000000000000000e+00
0.000000000000000000e+00
0.000000000000000000e+00
1.000000000000000000e+00
9.040000000000000258e-01
1.000000000000000000e+00
-2.524999999999999911e+00
1.000000000000000000e+00
-2.610000000000000098e-01
1.000000000000000000e+00
-1.403999999999999915e+00
1.000000000000000000e+00
-2.524999999999999911e+00
1.000000000000000000e+00
-2.177999999999999936e+00
8.820000000000000062e-01
-2.636000000000000121e+00
1.000000000000000000e+00
-4.043999999999999595e+00
1.000000000000000000e+00
2.399999999999999911e-01
1.000000000000000000e+00
-5.859999999999999654e-01
1.000000000000000000e+00
-9.909999999999999920e-01
9.709999999999999742e-01
1.449999999999999900e-01
9.709999999999999742e-01
1.449999999999999900e-01
9.709999999999999742e-01
1.449999999999999900e-01
1.449999999999999900e-01
1.449999999999999900e-01
