7.320000000000000118e-04
1.221000000000000080e-03
4.879999999999999898e-04
1.464999999999999939e-03
2.441000000000000027e-03
1.221000000000000080e-03
0.000000000000000000e+00
0.000000000000000000e+00
0.000000000000000000e+00
0.000000000000000000e+00
0.000000000000000000e+00
0.000000000000000000e+00
0.000000000000000000e+00
0.000000000000000000e+00
0.000000000000000000e+00
1.000000000000000000e+00
5.570000000000000506e-01
1.000000000000000000e+00
1.390000000000000124e-01
1.000000000000000000e+00
-3.079999999999999960e-01
1.000000000000000000e+00
-3.079999999999999960e-01
1.000000000000000000e+00
-3.079999999999999960e-01
1.000000000000000000e+00
-3.079999999999999960e-01
9.899999999999999911e-01
-2.990000000000000213e+00
9.399999999999999467e-01
-2.990000000000000213e+00
9.399999999999999467e-01
-3.079999999999999960e-01
9.399999999999999467e-01
-3.079999999999999960e-01
9.350000000000000533e-01
-3.079999999999999960e-01
6.670000000000000373e-01
6.670000000000000373e-01
6.670000000000000373e-01
1.489999999999999936e-01
4.680000000000000271e-01
1.489999999999999936e-01
1.489999999999999936e-01
1.489999999999999936e-01
