5.004900000000000321e-02
7.836899999999999422e-02
7.128900000000000514e-02
7.885699999999999654e-02
7.861300000000000232e-02
1.003420000000000006e-01
0.000000000000000000e+00
0.000000000000000000e+00
0.000000000000000000e+00
0.000000000000000000e+00
0.000000000000000000e+00
0.000000000000000000e+00
0.000000000000000000e+00
0.000000000000000000e+00
0.000000000000000000e+00
1.000000000000000000e+00
1.000000000000000000e+00
1.000000000000000000e+00
1.000000000000000000e+00
1.000000000000000000e+00
3.039999999999999925e-01
1.000000000000000000e+00
-7.089999999999999636e-01
1.000000000000000000e+00
-7.599999999999999811e-02
1.000000000000000000e+00
1.000000000000000000e+00
6.840000000000000524e-01
6.840000000000000524e-01
6.840000000000000524e-01
4.939999999999999947e-01
6.840000000000000524e-01
-1.299999999999999940e-02
4.939999999999999947e-01
4.939999999999999947e-01
4.939999999999999947e-01
4.939999999999999947e-01
4.939999999999999947e-01
-1.299999999999999940e-02
-1.299999999999999940e-02
-1.299999999999999940e-02
-1.299999999999999940e-02
-2.030000000000000138e-01
-2.030000000000000138e-01
-2.030000000000000138e-01
