1.464999999999999939e-03
1.221000000000000080e-03
0.000000000000000000e+00
0.000000000000000000e+00
0.000000000000000000e+00
0.000000000000000000e+00
0.000000000000000000e+00
0.000000000000000000e+00
0.000000000000000000e+00
0.000000000000000000e+00
0.000000000000000000e+00
0.000000000000000000e+00
0.000000000000000000e+00
0.000000000000000000e+00
0.000000000000000000e+00
1.000000000000000000e+00
-1.469999999999999918e-01
1.000000000000000000e+00
1.940000000000000058e-01
8.820000000000000062e-01
-1.181999999999999940e+00
8.820000000000000062e-01
-5.639999999999999458e-01
8.609999999999999876e-01
-4.419999999999999929e+00
8.539999999999999813e-01
-1.181999999999999940e+00
8.539999999999999813e-01
-4.365000000000000213e+00
8.539999999999999813e-01
-4.365000000000000213e+00
8.539999999999999813e-01
-1.181999999999999940e+00
8.539999999999999813e-01
-4.900000000000000189e-02
8.539999999999999813e-01
-4.900000000000000189e-02
8.539999999999999813e-01
-1.007699999999999996e+01
8.539999999999999813e-01
-4.900000000000000189e-02
4.089999999999999747e-01
4.089999999999999747e-01
4.089999999999999747e-01
4.089999999999999747e-01
