1.221000000000000080e-03
0.000000000000000000e+00
0.000000000000000000e+00
0.000000000000000000e+00
0.000000000000000000e+00
0.000000000000000000e+00
0.000000000000000000e+00
0.000000000000000000e+00
0.000000000000000000e+00
0.000000000000000000e+00
0.000000000000000000e+00
0.000000000000000000e+00
0.000000000000000000e+00
0.000000000000000000e+00
0.000000000000000000e+00
1.000000000000000000e+00
-4.530000000000000138e-01
9.419999999999999485e-01
-7.836999999999999744e+00
8.259999999999999565e-01
-1.452299999999999969e+01
9.419999999999999485e-01
-7.836999999999999744e+00
9.419999999999999485e-01
-1.452299999999999969e+01
8.259999999999999565e-01
-1.452299999999999969e+01
8.259999999999999565e-01
-1.452299999999999969e+01
1.200000000000000025e-02
-9.429099999999999682e+01
-2.662999999999999812e+00
-1.452299999999999969e+01
-2.662999999999999812e+00
-9.429099999999999682e+01
-4.115999999999999659e+00
-8.655800000000000693e+01
-4.115999999999999659e+00
-1.091900000000000048e+01
-7.314000000000000057e+00
-1.091900000000000048e+01
-1.091900000000000048e+01
-1.091900000000000048e+01
-1.091900000000000048e+01
-1.091900000000000048e+01
