2.099600000000000077e-02
0.000000000000000000e+00
0.000000000000000000e+00
0.000000000000000000e+00
0.000000000000000000e+00
0.000000000000000000e+00
0.000000000000000000e+00
0.000000000000000000e+00
0.000000000000000000e+00
0.000000000000000000e+00
0.000000000000000000e+00
0.000000000000000000e+00
0.000000000000000000e+00
0.000000000000000000e+00
0.000000000000000000e+00
1.000000000000000000e+00
7.119999999999999662e-01
9.280000000000000471e-01
9.280000000000000471e-01
9.280000000000000471e-01
9.280000000000000471e-01
-1.509999999999999953e-01
-1.509999999999999953e-01
-1.509999999999999953e-01
-1.509999999999999953e-01
-1.509999999999999953e-01
-1.509999999999999953e-01
-7.990000000000000435e-01
-1.374000000000000110e+00
-7.990000000000000435e-01
-7.990000000000000435e-01
-7.990000000000000435e-01
-7.990000000000000435e-01
-1.014000000000000012e+00
-1.014000000000000012e+00
-1.014000000000000012e+00
-1.014000000000000012e+00
-1.014000000000000012e+00
-1.014000000000000012e+00
-1.014000000000000012e+00
-1.014000000000000012e+00
-1.014000000000000012e+00
-1.014000000000000012e+00
-1.014000000000000012e+00
-1.014000000000000012e+00
