1.953000000000000092e-03
1.953000000000000092e-03
9.770000000000000039e-04
2.439999999999999949e-04
1.464999999999999939e-03
0.000000000000000000e+00
0.000000000000000000e+00
0.000000000000000000e+00
0.000000000000000000e+00
0.000000000000000000e+00
0.000000000000000000e+00
0.000000000000000000e+00
0.000000000000000000e+00
0.000000000000000000e+00
0.000000000000000000e+00
1.000000000000000000e+00
2.369999999999999885e-01
1.000000000000000000e+00
-1.719999999999999862e-01
1.000000000000000000e+00
-1.719999999999999862e-01
1.000000000000000000e+00
7.900000000000000078e-02
1.000000000000000000e+00
-2.320000000000000118e-01
9.949999999999999956e-01
-2.320000000000000118e-01
9.729999999999999760e-01
-2.320000000000000118e-01
7.980000000000000426e-01
-5.397999999999999687e+00
7.980000000000000426e-01
7.900000000000000078e-02
7.980000000000000426e-01
-6.389999999999999680e+00
7.980000000000000426e-01
-6.203999999999999737e+00
7.710000000000000187e-01
-1.499999999999999944e-01
7.710000000000000187e-01
3.569999999999999840e-01
7.660000000000000142e-01
7.660000000000000142e-01
7.660000000000000142e-01
7.660000000000000142e-01
